digraph Tree {
node [shape=box, fontname="helvetica"] ;
edge [fontname="helvetica"] ;
0 [label="petal length (cm) <= 2.45\ngini = 0.444\nsamples = 120\nvalue = [40, 80]"] ;
1 [label="gini = 0.0\nsamples = 40\nvalue = [40, 0]"] ;
0 -> 1 [labeldistance=2.5, labelangle=45, headlabel="True"] ;
2 [label="gini = 0.0\nsamples = 80\nvalue = [0, 80]"] ;
0 -> 2 [labeldistance=2.5, labelangle=-45, headlabel="False"] ;
}